{
  "class_names": {
    "0": "normal",
    "1": "ddos",
    "2": "portscan",
    "3": "lateral_movement",
    "4": "resource_anomaly",
    "5": "syscall_anomaly"
  },
  "classes": [
    0,
    1,
    2,
    3,
    4,
    5
  ],
  "created_at": "2026-06-23T12:09:48.368271+00:00",
  "evaluation_runs": [
    "runs/eval-v3-combined-auto-newdata-20260611-0108",
    "runs/eval-v4-large-20260623"
  ],
  "features": [
    "cpu_pct",
    "rss_mib",
    "disk_read_kib_sec",
    "disk_write_kib_sec",
    "rx_kib_sec",
    "tx_kib_sec",
    "rx_packets_sec",
    "tx_packets_sec",
    "connection_open_count",
    "connection_active_max",
    "remote_endpoint_count",
    "unique_dst_ip_count",
    "unique_dst_port_count",
    "connection_bytes_sent",
    "connection_bytes_recv",
    "http_request_count",
    "http_rps",
    "http_error_rate",
    "http_resp_kib",
    "http_latency_avg_ms",
    "http_latency_p95_ms",
    "dns_request_count",
    "dns_failure_rate",
    "sensor_event_count",
    "process_spawn_count",
    "sensitive_file_access_count"
  ],
  "layers": [
    {
      "activation": "relu",
      "bias": [
        -0.06430946290493011,
        0.2025003731250763,
        -0.04915285483002663,
        0.32512566447257996,
        0.15045394003391266,
        -0.00976866390556097,
        -0.007355954498052597,
        0.2793489098548889,
        0.12487050890922546,
        0.1709779053926468,
        0.27808037400245667,
        0.11143920570611954,
        0.0697297751903534,
        -0.02188902348279953,
        0.3166320025920868,
        -0.0037685343995690346,
        0.053566500544548035,
        0.0821259394288063,
        0.2676062285900116,
        0.14842616021633148,
        0.22747723758220673,
        0.2907368242740631,
        -0.15374755859375,
        0.13956116139888763,
        -0.12142006307840347,
        0.26260462403297424,
        -0.09930673241615295,
        0.09595037251710892,
        0.32409244775772095,
        0.3761797547340393,
        0.014998769387602806,
        -0.04268244281411171,
        0.22555355727672577,
        0.2443075031042099,
        0.09160640835762024,
        0.15040287375450134,
        0.05044339597225189,
        0.28899651765823364,
        0.31202393770217896,
        -0.19459620118141174,
        0.2787688672542572,
        0.3114106059074402,
        0.30222299695014954,
        0.019937831908464432,
        0.21801842749118805,
        0.2522999942302704,
        0.2432398796081543,
        0.25918811559677124,
        0.1303587108850479,
        0.24965298175811768,
        0.3112468123435974,
        -0.11405965685844421,
        0.1214727833867073,
        0.07636678218841553,
        0.08233924955129623,
        0.07739143073558807,
        0.15425914525985718,
        0.22677555680274963,
        -0.03776351362466812,
        0.020676083862781525,
        0.07187309861183167,
        0.18597464263439178,
        0.30526238679885864,
        -0.11895261704921722
      ],
      "weight": [
        [
          0.07944143563508987,
          1.1409504413604736,
          -0.010608009994029999,
          0.3342168927192688,
          -0.040897198021411896,
          0.010917363688349724,
          -0.07176126539707184,
          0.10254231095314026,
          0.17288479208946228,
          -0.143876314163208,
          0.35625937581062317,
          0.19040346145629883,
          0.3308297395706177,
          0.026560120284557343,
          0.09456486999988556,
          -0.13619114458560944,
          0.042681701481342316,
          0.028987711295485497,
          -0.20005619525909424,
          -0.05851789191365242,
          -0.19886435568332672,
          -0.11936668306589127,
          -0.002836491446942091,
          0.30999869108200073,
          -0.2633168399333954,
          -0.19891977310180664
        ],
        [
          0.2111094444990158,
          -0.2638837695121765,
          -0.06186193972826004,
          -0.3782443702220917,
          0.145919069647789,
          -0.0579875186085701,
          0.5010928511619568,
          0.4152304530143738,
          -0.06367979943752289,
          0.12118995934724808,
          -0.0577319860458374,
          0.15941093862056732,
          -0.06777995824813843,
          -0.061849769204854965,
          0.0526932030916214,
          -0.10134541243314743,
          0.03437429666519165,
          0.17509682476520538,
          0.06514792144298553,
          -0.22978737950325012,
          -0.006926380097866058,
          0.10314098000526428,
          0.0270350631326437,
          -0.20806439220905304,
          -0.37860724329948425,
          -0.2602415084838867
        ],
        [
          -0.15102115273475647,
          1.0221587419509888,
          0.0949023962020874,
          0.20382124185562134,
          0.016080988571047783,
          0.13401687145233154,
          0.43517425656318665,
          0.15436020493507385,
          0.012348202057182789,
          -0.1338571459054947,
          0.22616243362426758,
          0.052590128034353256,
          0.2260715514421463,
          -0.040859125554561615,
          0.16265712678432465,
          -0.16679802536964417,
          -0.1675228774547577,
          -0.11697033047676086,
          0.12562985718250275,
          0.03954310715198517,
          0.17032204568386078,
          -0.2478899508714676,
          -0.2008519321680069,
          0.007934912107884884,
          -0.21806466579437256,
          -0.006704908329993486
        ],
        [
          0.35339707136154175,
          0.09674882888793945,
          -0.27692386507987976,
          -0.3235788643360138,
          0.07555152475833893,
          -0.029367776587605476,
          0.32749277353286743,
          0.21033087372779846,
          0.11218743771314621,
          -0.1523759663105011,
          -0.26720893383026123,
          0.08169648796319962,
          -0.12770213186740875,
          -0.05000152438879013,
          0.11689883470535278,
          0.07258638739585876,
          -0.20295308530330658,
          -0.10470016300678253,
          0.11877226829528809,
          -0.23883239924907684,
          -0.23638811707496643,
          -0.3855727016925812,
          -0.2400335818529129,
          -0.11592401564121246,
          -0.20679430663585663,
          -0.32326629757881165
        ],
        [
          0.4524936378002167,
          -0.11355946213006973,
          -0.2846113443374634,
          -0.2182902991771698,
          -0.2713302969932556,
          -0.25942954421043396,
          0.10092806816101074,
          -0.060637641698122025,
          0.06043509021401405,
          -0.18291443586349487,
          -0.24479077756404877,
          0.018992334604263306,
          -0.08823181688785553,
          -0.17256677150726318,
          -0.08450115472078323,
          -0.22280386090278625,
          -0.10485164076089859,
          -0.07297544181346893,
          -0.11903087049722672,
          -0.2546786069869995,
          -0.255527526140213,
          -0.23240438103675842,
          -0.23787392675876617,
          -0.26823341846466064,
          0.2520585358142853,
          0.04869892820715904
        ],
        [
          0.5188230872154236,
          0.20956017076969147,
          -0.20529237389564514,
          0.06651198118925095,
          -0.09503402560949326,
          -0.2660532593727112,
          -0.5452562570571899,
          -0.5912459492683411,
          0.05611091107130051,
          -0.042840369045734406,
          -0.006566336378455162,
          -0.2744305431842804,
          0.06325593590736389,
          -0.14395977556705475,
          -0.03386402875185013,
          0.07540400326251984,
          0.13568666577339172,
          0.15832658112049103,
          0.21309639513492584,
          -0.21758058667182922,
          -0.005891494452953339,
          -0.17192567884922028,
          -0.01157845463603735,
          -0.22960060834884644,
          0.218888521194458,
          -0.10368536412715912
        ],
        [
          0.4697164297103882,
          -0.09389889240264893,
          0.01232927292585373,
          -0.18607112765312195,
          0.13341902196407318,
          -0.06862197816371918,
          -0.3300307095050812,
          -0.5265239477157593,
          0.08232729136943817,
          -0.029421459883451462,
          -0.17762590944766998,
          0.3429964780807495,
          -0.046946484595537186,
          -0.10850643366575241,
          -0.09926200658082962,
          -0.10206037759780884,
          0.016808979213237762,
          -0.05011430382728577,
          -0.2045932412147522,
          -0.1598549485206604,
          -0.2392093539237976,
          0.095387764275074,
          0.12087541818618774,
          -0.2705720365047455,
          0.22384266555309296,
          0.27960795164108276
        ],
        [
          -0.05759362876415253,
          -0.4325782358646393,
          0.04018474370241165,
          -0.10019487142562866,
          -0.004201860167086124,
          0.0371580645442009,
          0.2669869065284729,
          0.400437593460083,
          -0.0346447192132473,
          -0.05844281241297722,
          -0.047965794801712036,
          0.3023459315299988,
          -0.19547033309936523,
          -0.04390978813171387,
          0.002861783606931567,
          -0.20866136252880096,
          -0.1498030573129654,
          0.05495833605527878,
          -0.37513846158981323,
          -0.0685001015663147,
          0.14554359018802643,
          0.12419356405735016,
          0.03399538993835449,
          -0.2867369055747986,
          -0.3314521908760071,
          -0.3871415853500366
        ],
        [
          0.2650540769100189,
          0.14209727942943573,
          0.032595597207546234,
          0.13782474398612976,
          -0.44183921813964844,
          -0.3457637131214142,
          0.09671305865049362,
          0.3330593407154083,
          0.028369668871164322,
          -0.05078833922743797,
          0.19153428077697754,
          -0.15057019889354706,
          -0.01569465920329094,
          0.1431426703929901,
          -0.08917435258626938,
          -0.2816304564476013,
          -0.4374135136604309,
          0.13125476241111755,
          -0.09373156726360321,
          -0.17084901034832,
          -0.37906789779663086,
          -0.4362533986568451,
          -0.2612537741661072,
          0.24719762802124023,
          0.27798739075660706,
          0.3488636314868927
        ],
        [
          0.4150066375732422,
          0.20605160295963287,
          0.01631237007677555,
          -0.23910021781921387,
          -0.23832948505878448,
          -0.35647910833358765,
          -0.21585853397846222,
          -0.4043816328048706,
          -0.039468877017498016,
          -0.1128658652305603,
          -0.12280240654945374,
          -0.31909921765327454,
          -0.21270659565925598,
          0.06505384296178818,
          -0.058285005390644073,
          0.04381055384874344,
          -0.14017650485038757,
          -0.14386437833309174,
          -0.11186207085847855,
          -0.19182953238487244,
          -0.1599288284778595,
          -0.2936437427997589,
          0.005930207669734955,
          -0.22350622713565826,
          0.23864789307117462,
          0.22907082736492157
        ],
        [
          0.8396569490432739,
          0.04825626686215401,
          0.11502175778150558,
          -0.27655768394470215,
          0.051809318363666534,
          0.19499431550502777,
          0.06555154919624329,
          0.12234657257795334,
          -0.045151930302381516,
          -0.163753941655159,
          -0.04775889217853546,
          -0.3984047472476959,
          -0.01959741860628128,
          0.14673900604248047,
          0.18546827137470245,
          -0.2080734819173813,
          -0.32295072078704834,
          0.04409284517168999,
          -0.05354815348982811,
          -0.3711489737033844,
          -0.21806436777114868,
          -0.28641828894615173,
          -0.0465712696313858,
          -0.23903696238994598,
          -0.2716509699821472,
          -0.2537435293197632
        ],
        [
          -1.2282921075820923,
          0.05897633358836174,
          0.1813822239637375,
          -0.03283408656716347,
          -0.013490403071045876,
          -0.21885085105895996,
          -0.49307891726493835,
          -0.523388683795929,
          0.07288821786642075,
          -0.10767681151628494,
          -0.1355714201927185,
          0.1703352928161621,
          -0.07799114286899567,
          -0.06344764679670334,
          0.006301445886492729,
          -0.009742187336087227,
          -0.03566889092326164,
          -0.09390155971050262,
          -0.12772007286548615,
          0.34124088287353516,
          0.0832633227109909,
          -0.027512656524777412,
          -0.038068730384111404,
          0.009595796465873718,
          0.18707479536533356,
          0.09459042549133301
        ],
        [
          -1.267619252204895,
          0.012654237449169159,
          0.2068231701850891,
          0.08456075191497803,
          0.13123853504657745,
          0.08558602631092072,
          -0.4184788465499878,
          -0.36016029119491577,
          -0.13630759716033936,
          -0.040415044873952866,
          0.13392026722431183,
          0.33965960144996643,
          -0.1409779191017151,
          -0.15726259350776672,
          -0.1340186446905136,
          -0.21192027628421783,
          -0.16970856487751007,
          -0.048499010503292084,
          0.11397672444581985,
          0.016148068010807037,
          -0.1663285344839096,
          -0.2075095772743225,
          0.024146590381860733,
          -0.1471180021762848,
          0.1969885379076004,
          0.31521376967430115
        ],
        [
          -1.0553641319274902,
          0.14466236531734467,
          -0.16684968769550323,
          -0.19674132764339447,
          -0.23649412393569946,
          -0.40077072381973267,
          -0.5477981567382812,
          -0.5157362818717957,
          0.18941636383533478,
          -0.09472697973251343,
          -0.30155518651008606,
          0.11092504858970642,
          -0.11614103615283966,
          0.10745394229888916,
          0.14907187223434448,
          -0.03822443261742592,
          -0.34188541769981384,
          0.017393268644809723,
          -0.028638100251555443,
          0.01081544067710638,
          -0.13245134055614471,
          0.2693033516407013,
          0.013510449789464474,
          -0.2705933451652527,
          -0.35021013021469116,
          -0.16464035212993622
        ],
        [
          0.07784159481525421,
          -0.033708833158016205,
          0.016276735812425613,
          -0.3260290026664734,
          -0.20954550802707672,
          0.09066107869148254,
          0.5537771582603455,
          0.5381783246994019,
          -0.11418553441762924,
          -0.02545754984021187,
          -0.3209168016910553,
          -0.27050885558128357,
          -0.14083030819892883,
          0.10679278522729874,
          0.16245657205581665,
          -0.24471226334571838,
          0.06646915525197983,
          -0.13831916451454163,
          0.008746985346078873,
          0.24336829781532288,
          0.04459196329116821,
          0.2583588659763336,
          -0.09881455451250076,
          -0.25173795223236084,
          -0.06295794993638992,
          -0.22007013857364655
        ],
        [
          0.15800702571868896,
          0.057052478194236755,
          0.15368300676345825,
          0.2640458047389984,
          0.1418621689081192,
          -0.07785002142190933,
          0.006358832586556673,
          0.19874709844589233,
          0.05810505896806717,
          -0.09054914861917496,
          0.16884645819664001,
          0.14528685808181763,
          0.23887884616851807,
          0.008848432451486588,
          -0.048264287412166595,
          -0.23410242795944214,
          -0.24090133607387543,
          -0.09374646842479706,
          -0.1561913937330246,
          0.025644930079579353,
          -0.08512107282876968,
          0.038893576711416245,
          0.19007451832294464,
          0.28525596857070923,
          0.06157417967915535,
          -0.17318017780780792
        ],
        [
          0.12143652141094208,
          0.4015634059906006,
          -0.24221324920654297,
          -0.2562415897846222,
          -0.14474913477897644,
          -0.1847706139087677,
          -0.29115620255470276,
          0.028227459639310837,
          0.15770931541919708,
          0.031814612448215485,
          -0.1572147160768509,
          -0.298166960477829,
          -0.1945914626121521,
          0.04992834851145744,
          0.09247481822967529,
          -0.13470354676246643,
          -0.18744613230228424,
          0.1092810183763504,
          -0.26610636711120605,
          0.09255664795637131,
          -0.12792353332042694,
          -0.10880288481712341,
          -0.11732637137174606,
          -0.09953770786523819,
          0.07541454583406448,
          0.2772815525531769
        ],
        [
          -0.07447078078985214,
          0.1039329245686531,
          0.14884871244430542,
          -0.19444037973880768,
          -0.2002163976430893,
          -0.010025241412222385,
          -0.16414375603199005,
          -0.4699970781803131,
          -0.015160422772169113,
          -0.19339527189731598,
          -0.27007776498794556,
          0.22127804160118103,
          -0.05830083414912224,
          0.04157290607690811,
          -0.053375888615846634,
          0.12934310734272003,
          -0.023548919707536697,
          -0.11572514474391937,
          -0.06265438348054886,
          0.18609684705734253,
          0.19110015034675598,
          -0.26362600922584534,
          0.08741401880979538,
          -0.20487923920154572,
          -0.26615750789642334,
          -0.21031641960144043
        ],
        [
          1.0664498805999756,
          0.6416348218917847,
          0.17292584478855133,
          0.18266531825065613,
          0.042923592031002045,
          -0.14572998881340027,
          -0.1686732918024063,
          0.07367799431085587,
          -0.10162399709224701,
          -0.1323520839214325,
          0.01828678883612156,
          0.20956777036190033,
          0.1805904060602188,
          -0.07617327570915222,
          -0.11542734503746033,
          -0.06628178060054779,
          -0.20833435654640198,
          -0.12768365442752838,
          0.009481960907578468,
          -0.1422138214111328,
          0.10530059039592743,
          0.11978854984045029,
          0.010689729824662209,
          0.14756107330322266,
          -0.0752205178141594,
          -0.11731132119894028
        ],
        [
          -0.6868637204170227,
          0.010615148581564426,
          0.08670419454574585,
          0.1706615537405014,
          -0.09217014908790588,
          -0.25195854902267456,
          -0.41480907797813416,
          -0.4643140137195587,
          0.03334733098745346,
          0.14639057219028473,
          0.1270667463541031,
          0.12382783740758896,
          -0.17133407294750214,
          -0.10525646805763245,
          -0.04308895394206047,
          0.0054438053630292416,
          0.05772288143634796,
          -0.1800290197134018,
          0.10263454914093018,
          -0.14718417823314667,
          -0.12165278941392899,
          -0.21742720901966095,
          0.1438208967447281,
          -0.20532888174057007,
          0.29796314239501953,
          0.14342659711837769
        ],
        [
          0.20283350348472595,
          0.16060802340507507,
          -0.11775372922420502,
          0.0053614419884979725,
          0.12050416320562363,
          -0.06577453762292862,
          0.46754634380340576,
          0.4645477533340454,
          0.042167264968156815,
          0.02863127738237381,
          -0.08234420418739319,
          -0.27070340514183044,
          -0.1607341766357422,
          0.18633385002613068,
          0.13176052272319794,
          -0.20685094594955444,
          -0.3839367628097534,
          0.008595333434641361,
          -0.3330376446247101,
          0.004283800721168518,
          -0.27825015783309937,
          -0.2145649492740631,
          -0.050150398164987564,
          -0.09993097186088562,
          0.3441925048828125,
          0.17827613651752472
        ],
        [
          0.6482363343238831,
          0.2501215636730194,
          0.09241025149822235,
          -0.068919837474823,
          -0.05192657560110092,
          0.11564246565103531,
          0.1279926747083664,
          0.30943763256073,
          -0.042845044285058975,
          -0.13301622867584229,
          0.11854494363069534,
          -0.1328044831752777,
          0.1277080774307251,
          0.19483864307403564,
          0.13389495015144348,
          0.07007001340389252,
          -0.10534767806529999,
          -0.16870155930519104,
          -0.25342363119125366,
          -0.3196813464164734,
          -0.37073779106140137,
          -0.2958599627017975,
          -0.3308284878730774,
          -0.1452280431985855,
          -0.31434935331344604,
          -0.39049702882766724
        ],
        [
          -1.2597463130950928,
          -0.08623144030570984,
          0.1936667412519455,
          -0.10095501691102982,
          -0.06461594998836517,
          0.05336221680045128,
          -0.32835012674331665,
          -0.34853559732437134,
          0.12083294242620468,
          -0.17087630927562714,
          -0.009541455656290054,
          0.1255844533443451,
          0.006931639742106199,
          0.05333256721496582,
          -0.11421629786491394,
          0.031840529292821884,
          0.04532951861619949,
          0.048133622854948044,
          0.11079944670200348,
          0.3278791904449463,
          -0.0007921927026472986,
          -0.004172926768660545,
          -0.11674518138170242,
          -0.19104555249214172,
          -0.045531462877988815,
          -0.20245568454265594
        ],
        [
          0.6800239086151123,
          0.18074341118335724,
          -0.22198902070522308,
          0.18050909042358398,
          -0.28186747431755066,
          -0.30958688259124756,
          -0.38343051075935364,
          -0.5203571915626526,
          -0.12470795959234238,
          -0.032009802758693695,
          0.23239493370056152,
          0.38817235827445984,
          0.20685230195522308,
          -0.1171056479215622,
          -0.12830333411693573,
          0.13201779127120972,
          0.030238330364227295,
          0.005210353992879391,
          -0.012588771060109138,
          -0.292949914932251,
          -0.1999061405658722,
          0.06273137032985687,
          -0.08432970941066742,
          0.07343709468841553,
          -0.3019396960735321,
          -0.24880632758140564
        ],
        [
          -0.9384693503379822,
          -0.24817252159118652,
          -0.07639776170253754,
          0.028684696182608604,
          -0.2541840970516205,
          -0.08132399618625641,
          -0.448484867811203,
          -0.42208555340766907,
          0.07529088854789734,
          0.15593591332435608,
          -0.1052887886762619,
          -0.060055628418922424,
          -0.2292243093252182,
          -0.10112878680229187,
          -0.1717265248298645,
          -0.04074352979660034,
          0.04416005313396454,
          -0.18373644351959229,
          0.1754252016544342,
          0.3035667836666107,
          -0.01889074593782425,
          -0.18820831179618835,
          0.12935028970241547,
          -0.09223740547895432,
          -0.11346335709095001,
          -0.18064044415950775
        ],
        [
          0.47624069452285767,
          -0.10751914232969284,
          0.13248658180236816,
          -0.18728244304656982,
          -0.01171314436942339,
          0.20920675992965698,
          0.22125810384750366,
          0.16458873450756073,
          -0.03171868994832039,
          0.15906065702438354,
          -0.34774327278137207,
          -0.1436077058315277,
          -0.3917718827724457,
          0.10282410681247711,
          0.07245858758687973,
          -0.03635981306433678,
          0.03949812427163124,
          0.00022057958994992077,
          0.06385199725627899,
          -0.35144662857055664,
          -0.22495266795158386,
          0.16700901091098785,
          0.21388879418373108,
          -0.10181721299886703,
          -0.011349456384778023,
          0.28209325671195984
        ],
        [
          -1.1176056861877441,
          -0.17720600962638855,
          -0.21866083145141602,
          -0.07128818333148956,
          0.09462209790945053,
          -0.06261567026376724,
          -0.4029858708381653,
          -0.2394833266735077,
          -0.06288353353738785,
          0.17905285954475403,
          -0.21147078275680542,
          -0.13799184560775757,
          -0.23020093142986298,
          -0.07723645120859146,
          0.06182515248656273,
          0.19966891407966614,
          0.0438213087618351,
          0.1922641098499298,
          0.04930863156914711,
          0.30214187502861023,
          0.3338918387889862,
          0.10690273344516754,
          -0.14577259123325348,
          0.13781608641147614,
          0.017261112108826637,
          -0.19323916733264923
        ],
        [
          -0.8156025409698486,
          -0.39674386382102966,
          0.026431668549776077,
          -0.31996336579322815,
          0.051475752145051956,
          0.10666342824697495,
          -0.05526771396398544,
          0.20079447329044342,
          -0.01595023088157177,
          0.08958932757377625,
          -0.01251006405800581,
          -0.3492266535758972,
          0.05513259768486023,
          0.16447122395038605,
          0.07803140580654144,
          -0.34377381205558777,
          -0.23458895087242126,
          -0.056836195290088654,
          -0.2149488478899002,
          0.2391313761472702,
          0.1804524064064026,
          0.253069132566452,
          -0.010519924573600292,
          -0.05958273634314537,
          -0.09606967866420746,
          -0.3291313350200653
        ],
        [
          0.12390842288732529,
          -0.2193908840417862,
          0.05558926612138748,
          -0.334362268447876,
          -0.25771835446357727,
          0.18232592940330505,
          0.4751755893230438,
          0.5664883255958557,
          -0.14805565774440765,
          -0.14353734254837036,
          -0.07412844151258469,
          0.2429143190383911,
          -0.058668095618486404,
          0.030722003430128098,
          0.06463491916656494,
          0.10491979867219925,
          -0.20775413513183594,
          -0.08903903514146805,
          0.05586764216423035,
          -0.30413371324539185,
          -0.27361923456192017,
          0.21180512011051178,
          0.014290736988186836,
          -0.11099160462617874,
          -0.2701226770877838,
          -0.1897069364786148
        ],
        [
          0.7750396728515625,
          -0.1652136892080307,
          -0.04747902229428291,
          0.048993468284606934,
          -0.1698858141899109,
          0.18255440890789032,
          0.014862217009067535,
          0.10242724418640137,
          -0.053063198924064636,
          -0.1278008222579956,
          -0.21202103793621063,
          0.26259011030197144,
          0.02990848943591118,
          -0.18368253111839294,
          -0.12622560560703278,
          0.11432843655347824,
          -0.0045438786037266254,
          0.0786905512213707,
          -0.19685256481170654,
          -0.2519325315952301,
          -0.20103693008422852,
          -0.2126084417104721,
          -0.12344557046890259,
          -0.0026680182199925184,
          -0.07908201217651367,
          -0.12340599298477173
        ],
        [
          -0.5227702260017395,
          -0.17632314562797546,
          0.025427542626857758,
          0.15224353969097137,
          -0.21752354502677917,
          -0.3472476899623871,
          -0.1179037094116211,
          -0.18052007257938385,
          -0.09974230080842972,
          0.18899750709533691,
          0.005932830274105072,
          0.33198651671409607,
          0.19219058752059937,
          -0.16442535817623138,
          0.12648339569568634,
          -0.3065565526485443,
          -0.23488280177116394,
          -0.03269548341631889,
          -0.25843489170074463,
          0.35038426518440247,
          0.09237746894359589,
          -0.061830077320337296,
          -0.30282941460609436,
          0.20620514452457428,
          -0.1936926692724228,
          -0.28192245960235596
        ],
        [
          0.7387537956237793,
          0.09501319378614426,
          0.17037220299243927,
          -0.1568993777036667,
          -0.1618678718805313,
          -0.10852298885583878,
          -0.2769547700881958,
          -0.2765868902206421,
          0.10764328390359879,
          -0.044470060616731644,
          0.049777280539274216,
          0.3720800578594208,
          -0.11682775616645813,
          0.13952824473381042,
          0.09581832587718964,
          0.1447169929742813,
          -0.1397155076265335,
          -0.0968439057469368,
          -0.0849718526005745,
          -0.06034832447767258,
          0.05148090422153473,
          -0.22098617255687714,
          0.03329230844974518,
          -0.12461113184690475,
          0.03499962016940117,
          -0.09278694540262222
        ],
        [
          -0.03063128888607025,
          -0.2636355459690094,
          -0.3431994616985321,
          -0.10265974700450897,
          -0.24212540686130524,
          0.0034649427980184555,
          0.43588724732398987,
          0.3257850408554077,
          0.05657362565398216,
          -0.19149237871170044,
          -0.34156548976898193,
          -0.3790275454521179,
          -0.26056110858917236,
          -0.07144459336996078,
          0.028082529082894325,
          -0.16203224658966064,
          -0.03357692062854767,
          0.17979836463928223,
          -0.055397879332304,
          -0.2744089663028717,
          -0.38265931606292725,
          0.1481586992740631,
          -0.019786853343248367,
          -0.10099069774150848,
          0.29381701350212097,
          0.2383624166250229
        ],
        [
          0.7537423372268677,
          0.5859694480895996,
          0.002397745382040739,
          -0.1710851937532425,
          0.14050376415252686,
          -0.038434948772192,
          0.19268552958965302,
          0.49676600098609924,
          0.1519528031349182,
          0.05925675109028816,
          0.02681402489542961,
          -0.3013778626918793,
          -0.004838768858462572,
          0.1881001591682434,
          0.04994270205497742,
          -0.1105828583240509,
          -0.1680973321199417,
          -0.06840183585882187,
          -0.010519152507185936,
          -0.1610010862350464,
          -0.018284475430846214,
          0.021299118176102638,
          0.08169732987880707,
          0.09284721314907074,
          0.018198275938630104,
          0.11015911400318146
        ],
        [
          0.7652173042297363,
          0.63712477684021,
          0.15240174531936646,
          0.024104971438646317,
          -0.20250503718852997,
          0.09238497167825699,
          0.2539744973182678,
          0.22028058767318726,
          -0.03284057229757309,
          0.009223897010087967,
          0.2724621891975403,
          -0.09208463132381439,
          0.06064911559224129,
          -0.08064784854650497,
          -0.048564497381448746,
          -0.09036078304052353,
          0.16179104149341583,
          0.10387199372053146,
          0.16252706944942474,
          -0.09722859412431717,
          -0.02685481496155262,
          -0.056193817406892776,
          -0.26990020275115967,
          0.14126616716384888,
          -0.13666629791259766,
          -0.23350155353546143
        ],
        [
          -0.1906937062740326,
          0.0467338040471077,
          0.12976694107055664,
          -0.10499951988458633,
          0.1703202873468399,
          -0.025029273703694344,
          0.18445433676242828,
          0.3159808814525604,
          -0.032403599470853806,
          -0.03848481550812721,
          -0.364389032125473,
          -0.09839216619729996,
          -0.32144010066986084,
          0.007132003549486399,
          0.19120843708515167,
          -0.22704873979091644,
          -0.22849534451961517,
          0.11831938475370407,
          -0.2389291226863861,
          0.044190458953380585,
          0.21267294883728027,
          -0.28466349840164185,
          -0.2725992202758789,
          -0.31239715218544006,
          -0.26602014899253845,
          -0.3047046959400177
        ],
        [
          0.3720601499080658,
          0.24824093282222748,
          0.01189094502478838,
          -0.24133150279521942,
          -0.2786264419555664,
          -0.04218485578894615,
          0.19501379132270813,
          0.25647854804992676,
          -0.17692087590694427,
          0.04224911704659462,
          -0.32297661900520325,
          -0.33707594871520996,
          -0.33893412351608276,
          0.0818556696176529,
          -0.11806715279817581,
          -0.09609022736549377,
          0.13858123123645782,
          0.10413065552711487,
          0.09731166064739227,
          -0.3584386110305786,
          -0.31125500798225403,
          0.021376781165599823,
          0.1699930727481842,
          -0.15884317457675934,
          -0.32663217186927795,
          -0.17872914671897888
        ],
        [
          -0.014376179315149784,
          -0.7275901436805725,
          -0.1150583028793335,
          0.285057932138443,
          0.0492083840072155,
          -0.09393495321273804,
          0.06928189843893051,
          -0.031144805252552032,
          0.07705409824848175,
          0.07757645100355148,
          0.27716952562332153,
          -0.026158077642321587,
          0.3924465775489807,
          -0.028313279151916504,
          -0.07635128498077393,
          0.07297148555517197,
          0.10998713225126266,
          0.19516688585281372,
          0.008150431327521801,
          -0.21431377530097961,
          -0.01686970517039299,
          0.2633870542049408,
          -0.148065984249115,
          0.1812044233083725,
          -0.3390223979949951,
          -0.16872970759868622
        ],
        [
          -0.46994322538375854,
          -0.14637258648872375,
          -0.05623533949255943,
          -0.040913622826337814,
          -0.1370285451412201,
          -0.2985309660434723,
          0.04413700848817825,
          -0.2121228724718094,
          -0.02154502645134926,
          0.018498923629522324,
          -0.14627982676029205,
          -0.36691588163375854,
          -0.04358534514904022,
          -0.08908212929964066,
          -0.1017175167798996,
          -0.06772178411483765,
          -0.2169220745563507,
          -0.0906369611620903,
          -0.1806349903345108,
          0.050898388028144836,
          0.03144689276814461,
          -0.03826533630490303,
          0.08574643731117249,
          -0.29428035020828247,
          -0.30639660358428955,
          -0.18482990562915802
        ],
        [
          -0.33145228028297424,
          0.7799822092056274,
          -0.06483002007007599,
          0.07062411308288574,
          0.0627216324210167,
          0.16648724675178528,
          -0.13546256721019745,
          -0.021608492359519005,
          -0.16857469081878662,
          -0.12410452961921692,
          0.12346206605434418,
          -0.05538780614733696,
          0.0976288914680481,
          -0.11512140929698944,
          0.029801787808537483,
          -0.018584147095680237,
          0.1980750411748886,
          -0.08577708154916763,
          0.050860267132520676,
          -0.07048975676298141,
          0.10031481087207794,
          0.3201325535774231,
          0.0877671167254448,
          -0.09066978096961975,
          0.047665901482105255,
          0.023524563759565353
        ],
        [
          0.30237698554992676,
          0.4263606369495392,
          -0.008706176653504372,
          0.11338957399129868,
          -0.26157283782958984,
          -0.11868491768836975,
          0.3468043804168701,
          0.44200706481933594,
          0.04398845508694649,
          -0.09451720118522644,
          0.3131246566772461,
          -0.0926002711057663,
          0.0034250044263899326,
          -0.09172599762678146,
          0.19306080043315887,
          -0.18624983727931976,
          -0.2128809243440628,
          -0.08161603659391403,
          -0.23767022788524628,
          -0.35144156217575073,
          -0.34211498498916626,
          0.08607432246208191,
          0.13822871446609497,
          0.3041154146194458,
          -0.3191526532173157,
          -0.0714954137802124
        ],
        [
          0.08575895428657532,
          0.07571391761302948,
          0.08708620816469193,
          -0.056310538202524185,
          0.06953586637973785,
          0.22646330296993256,
          0.44034236669540405,
          0.561242401599884,
          -0.07016465067863464,
          0.08539579063653946,
          -0.27616044878959656,
          -0.1986151486635208,
          -0.3836072087287903,
          -0.05127938836812973,
          -0.10313216596841812,
          -0.2371458262205124,
          -0.2962284982204437,
          -0.17639552056789398,
          -0.1583852618932724,
          -0.03701379522681236,
          0.020694367587566376,
          0.17851126194000244,
          -0.03183603659272194,
          -0.406511127948761,
          0.20854051411151886,
          0.24403758347034454
        ],
        [
          0.5782955288887024,
          0.3701239824295044,
          0.10370191931724548,
          0.014133702963590622,
          -0.3343693017959595,
          0.13148793578147888,
          0.28418871760368347,
          0.40639570355415344,
          -0.13263049721717834,
          0.11412891000509262,
          -0.13097470998764038,
          0.3602958619594574,
          -0.08178304135799408,
          0.11817312240600586,
          0.03927060216665268,
          -0.03974830359220505,
          -0.12179658561944962,
          0.08055183291435242,
          -0.17344166338443756,
          -0.3303648829460144,
          -0.22096481919288635,
          0.052851106971502304,
          0.017232589423656464,
          0.06515012681484222,
          -0.19578586518764496,
          0.023839719593524933
        ],
        [
          0.40326544642448425,
          0.07666861265897751,
          -0.14251165091991425,
          -0.17215149104595184,
          0.011054703034460545,
          -0.3189058303833008,
          -0.20985274016857147,
          -0.5588629841804504,
          0.08763808012008667,
          0.19551092386245728,
          0.06498877704143524,
          0.2664342224597931,
          -0.22768867015838623,
          0.18864277005195618,
          -0.03354518860578537,
          -0.2110547572374344,
          0.16579636931419373,
          -0.07980567216873169,
          -0.041690126061439514,
          0.19836443662643433,
          -0.12783895432949066,
          -0.22525568306446075,
          0.0608619786798954,
          -0.05535026639699936,
          -0.007429732941091061,
          -0.2170868217945099
        ],
        [
          0.015187854878604412,
          -0.17863675951957703,
          -0.3082474172115326,
          -0.3805024325847626,
          0.041764698922634125,
          0.15794609487056732,
          0.2939910590648651,
          0.6423215270042419,
          0.059152714908123016,
          0.03639193996787071,
          -0.17308376729488373,
          0.015987740829586983,
          0.13043998181819916,
          0.1345130056142807,
          -0.15274901688098907,
          0.03578914701938629,
          -0.12802891433238983,
          0.09432502090930939,
          0.0089484341442585,
          -0.005055560264736414,
          -0.32408979535102844,
          0.25130802392959595,
          0.00017313666467089206,
          -0.045354895293712616,
          -0.3488793671131134,
          -0.2548356354236603
        ],
        [
          0.13549387454986572,
          -0.011303824372589588,
          -0.1394033581018448,
          -0.06620053946971893,
          0.22321443259716034,
          0.2552402913570404,
          0.4698871970176697,
          0.45023927092552185,
          0.15182940661907196,
          -0.009050566703081131,
          -0.07306986302137375,
          -0.07810571789741516,
          -0.25841692090034485,
          -0.1579827070236206,
          0.024044111371040344,
          -0.0929313376545906,
          -0.019799554720520973,
          -0.045000575482845306,
          0.014268600381910801,
          -0.009680721908807755,
          -0.19045597314834595,
          0.25740817189216614,
          0.17726415395736694,
          -0.23893898725509644,
          -0.25965896248817444,
          -0.26688528060913086
        ],
        [
          -1.0014334917068481,
          -0.2579289972782135,
          -0.10102849453687668,
          -0.10988157242536545,
          -0.1988067328929901,
          -0.20149055123329163,
          -0.24794521927833557,
          -0.0001373727573081851,
          -0.07268629223108292,
          -0.14041933417320251,
          0.0925142839550972,
          -0.15694387257099152,
          0.16536150872707367,
          0.12253975868225098,
          0.18017753958702087,
          -0.24189504981040955,
          0.02780834026634693,
          0.16458825767040253,
          -0.19509892165660858,
          0.315486878156662,
          0.26512637734413147,
          -0.080185666680336,
          0.10925029218196869,
          -0.06277909874916077,
          -0.29218897223472595,
          -0.0715644508600235
        ],
        [
          -0.3025086522102356,
          -0.21166707575321198,
          0.08072596788406372,
          -0.08686325699090958,
          0.11585656553506851,
          0.06790336221456528,
          -0.22322997450828552,
          -0.41663339734077454,
          0.09544407576322556,
          0.03342128172516823,
          0.11359816789627075,
          0.27047744393348694,
          0.20281550288200378,
          -0.08429776132106781,
          -0.04411535710096359,
          0.007598847150802612,
          -0.02451424114406109,
          0.15814366936683655,
          -0.1488606035709381,
          0.1298569291830063,
          0.13722509145736694,
          -0.14570406079292297,
          0.10587335377931595,
          0.08233873546123505,
          -0.24592889845371246,
          -0.08591888844966888
        ],
        [
          -0.07563916593790054,
          -0.20349474251270294,
          -0.20934781432151794,
          -0.38159072399139404,
          -0.07635840028524399,
          0.06620045751333237,
          0.28676509857177734,
          0.5493040084838867,
          -0.04279237240552902,
          0.12598837912082672,
          -0.1361667662858963,
          -0.35318729281425476,
          -0.13858118653297424,
          0.16252842545509338,
          -0.1282796859741211,
          -0.223941832780838,
          0.09479117393493652,
          0.15758126974105835,
          -0.20664769411087036,
          0.016208674758672714,
          -0.14346781373023987,
          -0.35006508231163025,
          -0.060635682195425034,
          -0.1218072697520256,
          -0.2444794625043869,
          -0.11742702126502991
        ],
        [
          -0.5921199321746826,
          -0.020564891397953033,
          0.1556936800479889,
          0.14711877703666687,
          -0.06901286542415619,
          0.049079328775405884,
          -0.19975626468658447,
          -0.1027182787656784,
          -0.01872272975742817,
          -0.10913591086864471,
          -0.10527147352695465,
          0.32963675260543823,
          0.17092487215995789,
          -0.17811036109924316,
          0.06240649148821831,
          0.01493480522185564,
          0.12145845592021942,
          0.11346370726823807,
          0.11544559895992279,
          -0.2361181676387787,
          -0.0271768756210804,
          0.2648944556713104,
          0.012938632629811764,
          -0.11586187034845352,
          0.24616922438144684,
          0.3135610520839691
        ],
        [
          0.281576544046402,
          0.0048388466238975525,
          -0.020442143082618713,
          0.1024579107761383,
          -0.198329359292984,
          0.16479170322418213,
          0.4373634457588196,
          0.19727179408073425,
          0.0018998601008206606,
          0.0005441430839709938,
          0.13732212781906128,
          0.3547687828540802,
          0.130862295627594,
          -0.04456189274787903,
          0.17613835632801056,
          -0.2526562809944153,
          -0.2349744737148285,
          0.013389894738793373,
          -0.3273720443248749,
          -0.14343984425067902,
          -0.30923253297805786,
          -0.010376283898949623,
          0.012371273711323738,
          0.09856466948986053,
          -0.33968716859817505,
          -0.36057141423225403
        ],
        [
          0.6091986894607544,
          0.5216851234436035,
          -0.18956607580184937,
          0.12601539492607117,
          -0.18690577149391174,
          -0.024960704147815704,
          0.15363317728042603,
          0.11315261572599411,
          -0.1433883011341095,
          0.12131192535161972,
          0.14597740769386292,
          -0.03005681373178959,
          0.23397520184516907,
          -0.07789245992898941,
          -0.04563933238387108,
          -0.1049845814704895,
          0.02235579863190651,
          0.05192894861102104,
          0.009774472564458847,
          -0.13102157413959503,
          -0.10912295430898666,
          0.04926969110965729,
          -0.1029350534081459,
          0.0061541395261883736,
          -0.023410741239786148,
          -0.09852571040391922
        ],
        [
          -0.049970172345638275,
          -0.1394149512052536,
          0.10985792428255081,
          -0.08716722577810287,
          -0.2006477266550064,
          -0.038669224828481674,
          -0.35401761531829834,
          -0.43797093629837036,
          -0.12926068902015686,
          0.045967455953359604,
          -0.2693650424480438,
          0.27366000413894653,
          0.012841673567891121,
          -0.1720331609249115,
          -0.1283918172121048,
          -0.19849468767642975,
          0.10733550041913986,
          0.166722372174263,
          -0.0451633594930172,
          0.33140453696250916,
          0.05926353856921196,
          -0.3014226257801056,
          0.07024778425693512,
          -0.009275160729885101,
          0.25855764746665955,
          0.0662316158413887
        ],
        [
          0.7186161875724792,
          0.32105129957199097,
          0.13120633363723755,
          -0.31935808062553406,
          0.05199319124221802,
          -0.37924569845199585,
          -0.0809132307767868,
          -0.2744167149066925,
          -0.1738014817237854,
          0.05453847348690033,
          -0.16545583307743073,
          -0.3697674572467804,
          -0.1957644820213318,
          0.020220590755343437,
          0.1527443826198578,
          -0.13357608020305634,
          0.04320268705487251,
          0.02455933392047882,
          -0.06666970998048782,
          0.0515156127512455,
          -0.12977464497089386,
          -0.3113144636154175,
          -0.01279384084045887,
          -0.3090173304080963,
          -0.2635838985443115,
          -0.1631026268005371
        ],
        [
          -1.207985281944275,
          -0.1648791879415512,
          0.010102788917720318,
          0.04070858657360077,
          -0.12999890744686127,
          -0.10586325824260712,
          -0.3333273231983185,
          -0.26158782839775085,
          0.008858065120875835,
          -0.09793446213006973,
          -0.023943381384015083,
          0.21100081503391266,
          -0.08549610525369644,
          0.015352947637438774,
          -0.0138469273224473,
          0.09224890172481537,
          0.06257426738739014,
          0.14677008986473083,
          0.009732015430927277,
          0.010036878287792206,
          0.22843874990940094,
          -0.11667440086603165,
          0.048049263656139374,
          -0.014299092814326286,
          -0.008932981640100479,
          -0.0070776380598545074
        ],
        [
          0.40194353461265564,
          0.0838608592748642,
          0.02578028291463852,
          0.15902294218540192,
          -0.15773993730545044,
          0.1653819978237152,
          0.5007322430610657,
          0.5237346291542053,
          -0.1560797542333603,
          0.06979568302631378,
          -0.15874041616916656,
          -0.15949369966983795,
          -0.08687447756528854,
          -0.16375000774860382,
          -0.18707799911499023,
          -0.2942437529563904,
          -0.0762275755405426,
          0.08971048146486282,
          -0.3357943594455719,
          -0.2390974909067154,
          -0.1622430831193924,
          -0.3486410975456238,
          0.0059562306851148605,
          0.12751413881778717,
          -0.1307864487171173,
          -0.3111896216869354
        ],
        [
          0.3188894987106323,
          0.15339799225330353,
          0.12204597145318985,
          -0.006729363463819027,
          -0.34201687574386597,
          0.06033433601260185,
          -0.06765040010213852,
          -0.14443698525428772,
          -0.08217703551054001,
          -0.10112058371305466,
          0.30494487285614014,
          -0.015312097035348415,
          0.2879900634288788,
          0.17506299912929535,
          0.02484322339296341,
          -0.0999702513217926,
          -0.1551031768321991,
          0.13469557464122772,
          -0.3184647560119629,
          -0.020925775170326233,
          -0.1346818059682846,
          0.16064152121543884,
          0.05003217235207558,
          0.06709636747837067,
          0.14405199885368347,
          0.271124005317688
        ],
        [
          0.23185397684574127,
          -0.11714500188827515,
          -0.15336422622203827,
          -0.18014083802700043,
          0.0887274295091629,
          0.27279409766197205,
          0.34913280606269836,
          0.5776472091674805,
          -0.08194123953580856,
          -0.11005240678787231,
          -0.19719724357128143,
          -0.24239248037338257,
          -0.24688132107257843,
          -0.17474251985549927,
          -0.17381365597248077,
          0.02327996864914894,
          0.09169620275497437,
          0.18412309885025024,
          0.1390722393989563,
          -0.16320407390594482,
          -0.1100182831287384,
          -0.022002484649419785,
          0.06484465301036835,
          -0.2974734306335449,
          0.06728476285934448,
          0.01075296476483345
        ],
        [
          -0.012708923779428005,
          0.6617909669876099,
          -0.09131225198507309,
          0.32709866762161255,
          0.08093072474002838,
          0.09249147027730942,
          0.022494101896882057,
          0.1264829933643341,
          0.1319863647222519,
          0.08888667821884155,
          0.3222627639770508,
          0.16648197174072266,
          0.30183547735214233,
          0.045184988528490067,
          0.11800229549407959,
          0.15367628633975983,
          0.007067265920341015,
          -0.07279182970523834,
          -0.056851696223020554,
          -0.04278435558080673,
          -0.014079482294619083,
          -0.16560305655002594,
          0.08391407877206802,
          0.2835942208766937,
          -0.2637188136577606,
          -0.15788094699382782
        ],
        [
          -0.2443837970495224,
          -0.2943155765533447,
          -0.007169723976403475,
          -0.24578352272510529,
          -0.15214505791664124,
          0.029460974037647247,
          0.2173384726047516,
          0.5064931511878967,
          0.07522465288639069,
          0.19300048053264618,
          -0.12511099874973297,
          -0.16179145872592926,
          -0.09716643393039703,
          0.033659908920526505,
          -0.15390634536743164,
          -0.2820974290370941,
          -0.21363693475723267,
          0.0029482620302587748,
          -0.09231173992156982,
          0.17499235272407532,
          0.2322106957435608,
          -0.15743809938430786,
          -0.23338690400123596,
          -0.32774853706359863,
          -0.32990628480911255,
          -0.3034161925315857
        ],
        [
          0.10367158055305481,
          0.0011615976691246033,
          0.13883379101753235,
          -0.21786613762378693,
          -0.015252756886184216,
          0.07888651639223099,
          0.3966621160507202,
          0.48315781354904175,
          -0.004308958537876606,
          0.0090791592374444,
          -0.13972151279449463,
          -0.10023253411054611,
          -0.22293929755687714,
          -0.11694358289241791,
          0.04626861959695816,
          -0.1951470524072647,
          -0.2607710361480713,
          0.08236151933670044,
          -0.1701480746269226,
          -0.20081064105033875,
          -0.26721709966659546,
          -0.1988382786512375,
          -0.2555835545063019,
          -0.11786045879125595,
          0.1779295653104782,
          0.2939970791339874
        ],
        [
          -0.28458845615386963,
          -0.06312055140733719,
          0.05700782313942909,
          0.09855381399393082,
          -0.1722148209810257,
          -0.03964286297559738,
          -0.28126946091651917,
          -0.45758041739463806,
          0.06828506290912628,
          -0.1176174134016037,
          -0.1263687163591385,
          -0.23018349707126617,
          -0.19708260893821716,
          0.15445546805858612,
          -0.1752927005290985,
          0.029004720970988274,
          -0.24556230008602142,
          -0.023868512362241745,
          -0.05731708183884621,
          0.25088930130004883,
          0.009287112392485142,
          -0.009484125301241875,
          0.0383685864508152,
          0.05166571959853172,
          0.1574382781982422,
          0.21921339631080627
        ],
        [
          0.018120743334293365,
          -0.258601576089859,
          0.11986315995454788,
          -0.136185422539711,
          -0.04945303127169609,
          0.11685306578874588,
          0.6166365146636963,
          0.39349815249443054,
          -0.1493040770292282,
          -0.049715228378772736,
          0.15733982622623444,
          0.10361358523368835,
          0.21830406785011292,
          -0.0401482917368412,
          0.0923796221613884,
          -0.28727802634239197,
          -0.02683928981423378,
          0.0901082456111908,
          0.023651452735066414,
          -0.24909672141075134,
          -0.18901613354682922,
          -0.13065393269062042,
          -0.29759085178375244,
          -0.10335405170917511,
          -0.36243298649787903,
          -0.1628125160932541
        ],
        [
          0.31665289402008057,
          -0.07057886570692062,
          0.03363271802663803,
          0.07931380718946457,
          -0.14772622287273407,
          -0.1758696585893631,
          -0.5041794776916504,
          -0.5640734434127808,
          0.1691252887248993,
          -0.15172576904296875,
          0.01939459703862667,
          -0.18625827133655548,
          -0.015903931111097336,
          -0.0871465653181076,
          0.06455112993717194,
          -0.09277699142694473,
          0.1428717076778412,
          -0.15914176404476166,
          0.13514623045921326,
          -0.14351414144039154,
          0.13459458947181702,
          -0.1461789458990097,
          0.0221992377191782,
          -0.04010041058063507,
          0.33166569471359253,
          0.26865336298942566
        ]
      ]
    },
    {
      "activation": "relu",
      "bias": [
        0.1629578024148941,
        0.12725356221199036,
        0.21749641001224518,
        0.002643099520355463,
        0.143041729927063,
        0.13888436555862427,
        0.07661246508359909,
        -0.09053939580917358,
        0.2055509239435196,
        0.01763162761926651,
        0.06613247096538544,
        0.14028826355934143,
        0.04062744602560997,
        -0.00044548430014401674,
        0.13077270984649658,
        0.14509275555610657,
        0.15481625497341156,
        0.017413429915905,
        -0.001383414608426392,
        -0.12804630398750305,
        0.15909379720687866,
        0.044351670891046524,
        0.1854422688484192,
        0.17454318702220917,
        0.21394401788711548,
        -0.015487473458051682,
        0.0006464614998549223,
        0.0482502244412899,
        0.1781519651412964,
        -0.029267577454447746,
        -0.039802435785532,
        0.01428317278623581
      ],
      "weight": [
        [
          0.34412825107574463,
          -0.31066519021987915,
          1.0312607288360596,
          0.053165800869464874,
          -0.04672487452626228,
          0.12005557864904404,
          -0.02870519645512104,
          -0.025463394820690155,
          -0.22897951304912567,
          0.006437641568481922,
          -0.09503863751888275,
          0.35758715867996216,
          0.2599199116230011,
          0.2683766782283783,
          -0.054065804928541183,
          0.016857486218214035,
          0.17916478216648102,
          0.24952076375484467,
          -0.311283677816391,
          0.2483881264925003,
          -0.3400357961654663,
          -0.08231997489929199,
          0.5330274105072021,
          0.09620058536529541,
          0.1997298151254654,
          -0.014140765182673931,
          0.3319205939769745,
          0.18013206124305725,
          -0.07534255087375641,
          -0.2618539333343506,
          0.2872016131877899,
          0.07648898661136627,
          -0.22254706919193268,
          -0.6555584669113159,
          -0.7398259043693542,
          0.05826467275619507,
          -0.04715088754892349,
          -0.2582932114601135,
          0.19450511038303375,
          0.4213559925556183,
          -0.09394154697656631,
          -0.10780051350593567,
          -0.31210818886756897,
          0.09723205119371414,
          -0.4170362055301666,
          -0.1778748631477356,
          0.328723669052124,
          0.16477857530117035,
          0.03416680172085762,
          -0.18457220494747162,
          -0.23675763607025146,
          -0.17357194423675537,
          0.2519477605819702,
          0.06924614310264587,
          0.21436750888824463,
          -0.35222628712654114,
          -0.16034150123596191,
          -0.241428405046463,
          0.01018438395112753,
          0.11716059595346451,
          -0.44293832778930664,
          0.06390370428562164,
          -0.1836673766374588,
          -0.12215355783700943
        ],
        [
          0.17066001892089844,
          0.4344891905784607,
          0.869422197341919,
          -0.05782448127865791,
          -0.07985497266054153,
          -0.2625710666179657,
          -0.20042333006858826,
          0.10067196190357208,
          0.10074899345636368,
          -0.1810043603181839,
          0.1537555754184723,
          -0.15418502688407898,
          -0.16645094752311707,
          -0.11921058595180511,
          0.19276955723762512,
          0.1611008495092392,
          0.1514633148908615,
          -0.16517454385757446,
          -0.1582150012254715,
          -0.23758208751678467,
          0.29664888978004456,
          0.2225067913532257,
          -0.08145008981227875,
          0.03538830950856209,
          0.0014875303022563457,
          -0.027524854987859726,
          0.012767667882144451,
          0.30248525738716125,
          0.22202830016613007,
          -0.03727078065276146,
          0.0640774667263031,
          -0.3052879571914673,
          0.251581072807312,
          -0.07101859152317047,
          0.06917815655469894,
          0.021045023575425148,
          0.10698653757572174,
          0.05304967612028122,
          0.14751096069812775,
          0.3911899924278259,
          0.10653656721115112,
          0.251314640045166,
          0.0630016177892685,
          -0.21117985248565674,
          0.3874916434288025,
          0.3372032642364502,
          0.2443385273218155,
          -0.057689834386110306,
          0.19421106576919556,
          0.08191101998090744,
          0.2832421660423279,
          -0.03705805167555809,
          -0.3141968250274658,
          0.043371424078941345,
          -0.002657755743712187,
          0.2744000256061554,
          0.17935004830360413,
          0.2121366411447525,
          0.19092783331871033,
          0.1894850879907608,
          0.4718696177005768,
          0.0956953763961792,
          0.2976168990135193,
          -0.1921350657939911
        ],
        [
          -0.11205088347196579,
          0.055340513586997986,
          0.27241596579551697,
          0.27285704016685486,
          0.11674047261476517,
          -0.053918350487947464,
          -0.18170952796936035,
          0.21660438179969788,
          -0.26003095507621765,
          0.19462460279464722,
          0.189963698387146,
          -0.03671018034219742,
          -0.09420289844274521,
          0.25576794147491455,
          0.22395385801792145,
          0.08194921165704727,
          0.20317624509334564,
          0.14529705047607422,
          -0.24344255030155182,
          -0.13026957213878632,
          0.1083284392952919,
          0.22310321033000946,
          -0.08291353285312653,
          -0.1700325757265091,
          0.017291778698563576,
          0.055730268359184265,
          0.19681625068187714,
          0.21408464014530182,
          0.20885798335075378,
          -0.11633460968732834,
          -0.21843717992305756,
          -0.2872658669948578,
          0.2407514899969101,
          0.054152391850948334,
          0.030287127941846848,
          0.295806348323822,
          0.10595861822366714,
          -0.0914938896894455,
          0.14782150089740753,
          0.08103877305984497,
          0.21561937034130096,
          0.1496753692626953,
          0.13691110908985138,
          -0.20530743896961212,
          0.2764758765697479,
          0.04781541973352432,
          0.08207161724567413,
          -0.12138618528842926,
          0.31555941700935364,
          -0.1207064613699913,
          -0.1701938807964325,
          -0.15875723958015442,
          -0.2592024505138397,
          0.16793957352638245,
          -0.09842345863580704,
          0.19213169813156128,
          0.00746904406696558,
          0.03932484984397888,
          -0.21610446274280548,
          0.23413339257240295,
          0.22661355137825012,
          0.037861417979002,
          0.2403704822063446,
          -0.35156509280204773
        ],
        [
          2.102566957473755,
          -0.1649865359067917,
          2.7635440826416016,
          -0.13764962553977966,
          0.1996074914932251,
          0.09665437787771225,
          0.16067509353160858,
          -0.12148641794919968,
          0.22491952776908875,
          0.2218705266714096,
          -0.23565125465393066,
          0.2088635265827179,
          0.291486918926239,
          0.03362981602549553,
          -0.07115022838115692,
          -0.05394819378852844,
          0.26927945017814636,
          -0.17123769223690033,
          -0.5744590759277344,
          0.20849713683128357,
          0.21545279026031494,
          -0.20047764480113983,
          0.29753682017326355,
          -0.1521420180797577,
          0.06415483355522156,
          0.1857837438583374,
          0.03717956319451332,
          -0.03375191614031792,
          0.05213768035173416,
          -0.14496849477291107,
          0.04472905397415161,
          -0.18228349089622498,
          0.11451507359743118,
          -0.32002824544906616,
          -0.8585034012794495,
          -0.009324750863015652,
          -0.14317640662193298,
          -0.7588835954666138,
          0.036162614822387695,
          0.714236319065094,
          -0.13830268383026123,
          0.20854048430919647,
          -0.6225411295890808,
          -0.1396448165178299,
          -0.05384395644068718,
          -0.14839062094688416,
          -0.015982195734977722,
          0.07670512050390244,
          -0.052815310657024384,
          0.29384443163871765,
          -0.13960090279579163,
          -0.35147008299827576,
          0.0560767687857151,
          -0.20436622202396393,
          0.2395448088645935,
          -0.21402335166931152,
          0.05661146715283394,
          0.08217598497867584,
          0.8488946557044983,
          0.06797828525304794,
          0.26437997817993164,
          0.18383777141571045,
          0.007307275664061308,
          0.16983318328857422
        ],
        [
          -0.12485170364379883,
          0.5851912498474121,
          -0.25765037536621094,
          0.24765004217624664,
          0.06284968554973602,
          -0.171884223818779,
          -0.27108192443847656,
          0.42793673276901245,
          0.5839636325836182,
          -0.12127681821584702,
          0.0539364367723465,
          -0.39702296257019043,
          -0.572969913482666,
          0.05282594636082649,
          0.2957959771156311,
          0.21080391108989716,
          -0.015072434209287167,
          -0.17183879017829895,
          0.2839331030845642,
          -0.2681996822357178,
          0.7210942506790161,
          0.17960116267204285,
          -0.4842910170555115,
          0.0016077985055744648,
          -0.26891404390335083,
          0.1699277013540268,
          -0.1823074370622635,
          0.10587986558675766,
          0.4522905647754669,
          0.11646910011768341,
          -0.1794990450143814,
          -0.34905704855918884,
          0.3852921724319458,
          0.5806777477264404,
          0.47423383593559265,
          0.1939963400363922,
          0.23859903216362,
          0.19285213947296143,
          0.16423577070236206,
          -0.23725464940071106,
          0.39778903126716614,
          0.4595782160758972,
          0.6302545070648193,
          -0.2521848678588867,
          0.6432322859764099,
          0.45789799094200134,
          0.07707897573709488,
          -7.206213194876909e-05,
          0.21170175075531006,
          -0.13455572724342346,
          0.3479306697845459,
          -0.10030701756477356,
          -0.2891404926776886,
          -0.0977930799126625,
          -0.2659604251384735,
          0.6955927610397339,
          0.14853210747241974,
          0.3750270903110504,
          0.08452808111906052,
          0.26276034116744995,
          0.6203223466873169,
          -0.09595326334238052,
          0.507550835609436,
          -0.1829412430524826
        ],
        [
          -0.3413922190666199,
          0.248737633228302,
          -1.264965295791626,
          0.23215362429618835,
          0.1864551454782486,
          -0.11535263806581497,
          -0.05365799367427826,
          0.15251176059246063,
          0.21940471231937408,
          0.04249272868037224,
          0.10610531270503998,
          -0.3637009263038635,
          -0.27156302332878113,
          -0.008816014043986797,
          0.1828697770833969,
          0.07330647855997086,
          0.055060356855392456,
          0.011976253241300583,
          0.5346078276634216,
          -0.19614273309707642,
          0.31303638219833374,
          0.1943075954914093,
          -0.3472420275211334,
          0.19072477519512177,
          -0.31809312105178833,
          0.23598599433898926,
          -0.23544882237911224,
          -0.0678698718547821,
          0.2241307944059372,
          0.25852900743484497,
          0.052793871611356735,
          0.31405749917030334,
          -0.10112770646810532,
          0.6577489972114563,
          0.5468757748603821,
          0.08932642638683319,
          0.09952087700366974,
          0.41039785742759705,
          -0.03460963815450668,
          -0.527308464050293,
          0.27292555570602417,
          0.036016158759593964,
          0.469974547624588,
          0.0436902679502964,
          0.22012218832969666,
          0.2584538161754608,
          -0.1784554272890091,
          -0.014990471303462982,
          0.19005852937698364,
          -0.07518212497234344,
          0.13547752797603607,
          -0.018827494233846664,
          0.022702330723404884,
          0.13262979686260223,
          -0.1692255288362503,
          0.2127038836479187,
          0.09049411118030548,
          0.2425341010093689,
          0.012221214361488819,
          0.1883791983127594,
          0.16769234836101532,
          -0.13708022236824036,
          0.2283926159143448,
          -0.08791507035493851
        ],
        [
          -0.43427345156669617,
          -0.2514857351779938,
          -1.4216282367706299,
          0.10202791541814804,
          0.06922956556081772,
          0.20374925434589386,
          0.17979666590690613,
          -0.038930997252464294,
          0.06464143842458725,
          0.018340477719902992,
          0.07454916834831238,
          0.0695914700627327,
          -0.010256155394017696,
          0.02030780166387558,
          -0.045511744916439056,
          0.016734205186367035,
          0.05142676457762718,
          0.16897059977054596,
          0.5906667113304138,
          0.046884387731552124,
          -0.3110802471637726,
          0.20688843727111816,
          -0.1201128289103508,
          0.25863173604011536,
          0.002288075163960457,
          -0.16578693687915802,
          -0.18735024333000183,
          -0.358537495136261,
          -0.23843467235565186,
          0.08697731792926788,
          0.0983930230140686,
          0.4400934875011444,
          -0.1270456314086914,
          0.3767842650413513,
          0.4848325848579407,
          -0.19711045920848846,
          0.015701694414019585,
          0.12287091463804245,
          -0.08976352214813232,
          -0.6496838927268982,
          0.08920880407094955,
          -0.22263361513614655,
          0.4059445559978485,
          0.30634382367134094,
          -0.3293571472167969,
          -0.03942161425948143,
          -0.24623745679855347,
          0.05573132261633873,
          -0.2353947013616562,
          -0.14412111043930054,
          0.19009782373905182,
          0.21214111149311066,
          0.18132996559143066,
          0.006750352680683136,
          -0.1846829056739807,
          -0.043202128261327744,
          0.18193137645721436,
          -0.07687252759933472,
          0.026892507448792458,
          -0.2950621545314789,
          -0.45489126443862915,
          -0.12589116394519806,
          -0.0923927053809166,
          0.03853192925453186
        ],
        [
          0.035704340785741806,
          0.03413014113903046,
          -0.07355551421642303,
          0.05528828129172325,
          -0.040166571736335754,
          -0.027889063581824303,
          -0.04761412739753723,
          -0.14014048874378204,
          -0.003908335231244564,
          0.03612115979194641,
          -0.07894609868526459,
          0.06163150817155838,
          -0.13809844851493835,
          -0.12049707770347595,
          -0.07720611989498138,
          -0.06439697742462158,
          -0.013882264494895935,
          -0.04155351221561432,
          0.03203520551323891,
          -0.12937815487384796,
          -0.0053051491267979145,
          -0.02280157059431076,
          0.025986813008785248,
          0.10032369941473007,
          0.07693105936050415,
          -0.06921307742595673,
          -0.10243156552314758,
          -0.04773232713341713,
          -0.08266445249319077,
          0.019579635933041573,
          -0.021116038784384727,
          0.08111134171485901,
          0.041195161640644073,
          -0.044106923043727875,
          -0.02021995559334755,
          0.01216270960867405,
          -0.015510901808738708,
          0.07861718535423279,
          -0.11986682564020157,
          0.0391039177775383,
          -0.10365436971187592,
          -0.12310383468866348,
          -0.05115727707743645,
          0.038883358240127563,
          0.0832078829407692,
          0.02624061331152916,
          -0.03007981739938259,
          -0.02673187293112278,
          -0.05578509345650673,
          -0.03451492637395859,
          -0.03235872462391853,
          0.08239642530679703,
          0.06338851153850555,
          -0.11369920521974564,
          0.0005170851945877075,
          -0.10111096501350403,
          -0.044691428542137146,
          -0.09934601187705994,
          0.008605637587606907,
          -0.09013475477695465,
          0.10410020500421524,
          0.07448146492242813,
          -0.10664424300193787,
          -0.1362708956003189
        ],
        [
          0.21917448937892914,
          -0.13065987825393677,
          0.3753468692302704,
          -0.08513323217630386,
          0.0979044958949089,
          0.16745638847351074,
          -0.13809120655059814,
          -0.2524135708808899,
          0.2475491464138031,
          0.1744907945394516,
          0.1541254222393036,
          -0.3285614252090454,
          -0.27968910336494446,
          -0.5323140621185303,
          0.0659220740199089,
          0.25527524948120117,
          0.2327379286289215,
          -0.29095643758773804,
          0.25646060705184937,
          -0.3306214511394501,
          0.04433863237500191,
          0.2580420970916748,
          -0.07262083888053894,
          0.16081225872039795,
          -0.31733131408691406,
          0.09385165572166443,
          -0.36065131425857544,
          -0.057773657143116,
          0.13590888679027557,
          0.34414592385292053,
          0.12259860336780548,
          0.203717902302742,
          -0.41070398688316345,
          0.39170101284980774,
          0.3968597948551178,
          -0.4364072382450104,
          0.06509768217802048,
          0.07687339931726456,
          0.06514657288789749,
          0.44331106543540955,
          0.10852329432964325,
          -0.14164026081562042,
          0.11486496031284332,
          -0.0023527429439127445,
          0.07806595414876938,
          -0.1100211814045906,
          0.21950595080852509,
          0.06729630380868912,
          -0.2490110695362091,
          0.09445357322692871,
          0.2605001926422119,
          0.2801879048347473,
          -0.2409628927707672,
          0.16555604338645935,
          -0.1827598661184311,
          0.2582484781742096,
          0.27767375111579895,
          -0.011949263513088226,
          0.07362968474626541,
          -0.41739335656166077,
          -0.017873119562864304,
          0.03506091237068176,
          0.07778393477201462,
          0.11493352055549622
        ],
        [
          -0.4560922086238861,
          -0.8333410620689392,
          -1.5273021459579468,
          -0.23874716460704803,
          0.08429931849241257,
          0.3671818673610687,
          0.3025912046432495,
          -0.39419645071029663,
          0.17877605557441711,
          0.22274038195610046,
          -0.04446153715252876,
          0.006977344863116741,
          0.036995451897382736,
          -0.01932988129556179,
          -0.16841569542884827,
          -0.12135015428066254,
          0.15747468173503876,
          -0.057864345610141754,
          0.46972933411598206,
          0.25614482164382935,
          0.14571458101272583,
          -0.07471407949924469,
          -0.07247088849544525,
          0.16728241741657257,
          -0.011535394936800003,
          0.08200961351394653,
          -0.000988277606666088,
          -0.34883618354797363,
          -0.753778338432312,
          0.12037746608257294,
          -0.07021494954824448,
          0.26036882400512695,
          0.07253682613372803,
          0.27052220702171326,
          0.2678523659706116,
          -0.17145422101020813,
          0.08017327636480331,
          -0.009155110456049442,
          -0.15602868795394897,
          -0.538165807723999,
          0.011765661649405956,
          0.06689836829900742,
          -0.06361290067434311,
          0.1351730078458786,
          -0.9123298525810242,
          -0.3914092183113098,
          -0.20368453860282898,
          0.06306518614292145,
          -0.19406837224960327,
          0.20360814034938812,
          -0.19278068840503693,
          0.04345514625310898,
          0.26672887802124023,
          0.08555500954389572,
          0.06673916429281235,
          -0.14169572293758392,
          0.19723579287528992,
          -0.22612661123275757,
          -0.12907029688358307,
          -0.40848514437675476,
          0.1235196441411972,
          0.2829176187515259,
          -0.4743305742740631,
          0.3556020259857178
        ],
        [
          -1.64867103099823,
          0.4059716463088989,
          -1.9561781883239746,
          0.2040168046951294,
          0.08472060412168503,
          -0.1541411131620407,
          0.07409490644931793,
          0.2366466224193573,
          0.036972776055336,
          0.028476698324084282,
          0.11316800117492676,
          -0.23948746919631958,
          -0.2569197714328766,
          -0.029599633067846298,
          0.10894197970628738,
          -0.10626569390296936,
          0.012991436757147312,
          0.14566832780838013,
          0.6401699781417847,
          -0.141245499253273,
          0.5615296959877014,
          0.12263092398643494,
          -0.3488703966140747,
          0.07756747305393219,
          -0.25318893790245056,
          0.10241476446390152,
          -0.34328126907348633,
          -0.11358439177274704,
          0.416454553604126,
          0.35162705183029175,
          -0.16115736961364746,
          0.16438961029052734,
          0.06353772431612015,
          0.6858171224594116,
          0.5341864824295044,
          0.22752606868743896,
          0.14622022211551666,
          0.2920963168144226,
          0.1117190271615982,
          -0.8816330432891846,
          0.06650479137897491,
          0.30013370513916016,
          0.4755791425704956,
          0.1296234279870987,
          0.4216598570346832,
          0.19612735509872437,
          -0.19012832641601562,
          0.043460022658109665,
          0.069929338991642,
          0.17866173386573792,
          0.25374525785446167,
          -0.28489950299263,
          -0.07029104977846146,
          0.0086258165538311,
          -0.09712699800729752,
          0.4866366684436798,
          -0.01598903350532055,
          0.389299213886261,
          -0.43134018778800964,
          0.18844030797481537,
          0.3417043685913086,
          -0.14082521200180054,
          0.24766476452350616,
          -0.28241094946861267
        ],
        [
          -1.409988284111023,
          0.25943523645401,
          -1.6936482191085815,
          0.2569068372249603,
          0.1936677247285843,
          0.16994594037532806,
          0.13984964787960052,
          -0.04797518253326416,
          0.26557308435440063,
          0.19874732196331024,
          0.2443450689315796,
          -0.3082982897758484,
          -0.22609467804431915,
          -0.10917653143405914,
          0.19509220123291016,
          0.08209479600191116,
          0.18550904095172882,
          -0.08087944984436035,
          0.4127148985862732,
          0.03554008901119232,
          0.37830260396003723,
          0.2115623652935028,
          -0.41168123483657837,
          -0.10189441591501236,
          -0.11653835326433182,
          0.2722092270851135,
          -0.14046107232570648,
          -0.08495412766933441,
          0.26148277521133423,
          0.12736672163009644,
          -0.12733305990695953,
          0.0653671994805336,
          0.2001584768295288,
          0.42454835772514343,
          0.6962884068489075,
          0.06903073936700821,
          0.26694825291633606,
          0.23699454963207245,
          0.08616441488265991,
          -0.44817501306533813,
          0.16412465274333954,
          0.2604195177555084,
          0.2549484968185425,
          -0.20428131520748138,
          0.29762592911720276,
          0.22358493506908417,
          -0.08108572661876678,
          -0.21642926335334778,
          0.15854552388191223,
          -0.0412137545645237,
          0.10014521330595016,
          -0.0605352446436882,
          -0.13555793464183807,
          0.0844627171754837,
          -0.2787790596485138,
          0.3731728196144104,
          0.23639124631881714,
          0.19922079145908356,
          -0.2960931658744812,
          0.30797243118286133,
          0.26492878794670105,
          0.056950416415929794,
          0.12057362496852875,
          0.1372022032737732
        ],
        [
          0.0004428803513292223,
          0.41968658566474915,
          -0.2636587917804718,
          0.22008012235164642,
          0.22395874559879303,
          -0.189500629901886,
          0.04379064962267876,
          0.19672121107578278,
          0.10857046395540237,
          -0.1996312141418457,
          -0.11496345698833466,
          -0.15130740404129028,
          -0.08396998047828674,
          -0.03943546488881111,
          -0.019804509356617928,
          0.2636566162109375,
          -0.1460619419813156,
          0.1524829864501953,
          0.4097222685813904,
          -0.0735798105597496,
          0.44085973501205444,
          0.2625155746936798,
          -0.06012909486889839,
          0.11368879675865173,
          -0.1261262148618698,
          -0.031750477850437164,
          -0.35237887501716614,
          0.06613727658987045,
          0.2573699653148651,
          0.3620697855949402,
          0.11505601555109024,
          0.14639313519001007,
          0.14902402460575104,
          0.6289913654327393,
          0.4484114646911621,
          0.047219932079315186,
          -0.044223543256521225,
          0.15255627036094666,
          -0.015364786610007286,
          -0.5982113480567932,
          0.2564338147640228,
          0.2656767666339874,
          0.42628544569015503,
          0.030618956312537193,
          0.4793021082878113,
          0.33555349707603455,
          -0.15365545451641083,
          0.1966719627380371,
          0.08494505286216736,
          0.13343460857868195,
          0.10154532641172409,
          0.06650379300117493,
          -0.049327652901411057,
          -0.020597176626324654,
          0.046284403651952744,
          0.2538350820541382,
          0.2548375129699707,
          0.17972424626350403,
          0.13770383596420288,
          0.05236516892910004,
          0.43776190280914307,
          -0.13131898641586304,
          0.28458207845687866,
          -0.21008174121379852
        ],
        [
          -0.9421830773353577,
          0.3052850365638733,
          -1.0333021879196167,
          0.15683433413505554,
          0.09340552240610123,
          0.012368997558951378,
          0.02407483197748661,
          0.18166695535182953,
          0.2331658899784088,
          0.1320599466562271,
          0.15967348217964172,
          -0.08176130801439285,
          -0.1885688453912735,
          0.0019816721323877573,
          0.24689821898937225,
          -0.1611621379852295,
          0.1693757176399231,
          -0.2504599988460541,
          0.044400617480278015,
          -0.037805549800395966,
          0.2854136526584625,
          0.12833309173583984,
          -0.23360219597816467,
          -0.25132834911346436,
          -0.3298422396183014,
          0.1506434679031372,
          -0.21793365478515625,
          0.04779613018035889,
          0.33167317509651184,
          -0.03617734834551811,
          -0.29134660959243774,
          -0.17008864879608154,
          0.27561694383621216,
          0.34908828139305115,
          0.3332691788673401,
          0.16176578402519226,
          0.273713618516922,
          0.1985289752483368,
          0.16977667808532715,
          -0.11964099854230881,
          0.09832456707954407,
          0.15324737131595612,
          0.3581540584564209,
          -0.09945319592952728,
          0.20965349674224854,
          0.27001360058784485,
          -0.06403850764036179,
          -0.18086417019367218,
          0.20626908540725708,
          0.08570096641778946,
          0.1249295249581337,
          -0.10662823170423508,
          -0.010847975499927998,
          -0.009924490004777908,
          -0.34294945001602173,
          0.3238283097743988,
          0.2233925759792328,
          0.23450659215450287,
          -0.17075233161449432,
          0.11261175572872162,
          0.2857086956501007,
          -0.018679525703191757,
          0.1115693598985672,
          0.06840898841619492
        ],
        [
          -1.1082206964492798,
          -0.28909602761268616,
          -2.621985673904419,
          -0.01130701694637537,
          0.22884362936019897,
          0.19414076209068298,
          0.36707985401153564,
          -0.28172004222869873,
          0.18038800358772278,
          0.31654542684555054,
          0.01652907393872738,
          0.08543512970209122,
          0.23534844815731049,
          0.0878726989030838,
          -0.13009554147720337,
          0.08367319405078888,
          0.11820820719003677,
          0.07569990307092667,
          0.46419286727905273,
          0.2291867882013321,
          -0.06617047637701035,
          0.026426903903484344,
          -0.11366955190896988,
          0.09746596217155457,
          0.252140611410141,
          0.11511550843715668,
          0.04727943241596222,
          -0.16410495340824127,
          -0.43871375918388367,
          0.0369306355714798,
          -0.1366141140460968,
          0.0984668880701065,
          0.12359695881605148,
          0.1654135286808014,
          0.32995304465293884,
          -0.09900255501270294,
          -0.043527550995349884,
          0.5442473292350769,
          -0.00648975744843483,
          -0.5450149774551392,
          -0.08047710359096527,
          -0.13398003578186035,
          -0.23297321796417236,
          0.2769714891910553,
          -0.5053908228874207,
          -0.34435105323791504,
          -0.04344072937965393,
          0.1679118573665619,
          -0.253459632396698,
          0.03211938217282295,
          -0.5240761637687683,
          0.2784034013748169,
          0.23081248998641968,
          0.03341333940625191,
          0.13153795897960663,
          -0.42795783281326294,
          0.34623458981513977,
          -0.20722222328186035,
          -0.7343230247497559,
          -0.2512322664260864,
          -0.11333150416612625,
          0.3251911699771881,
          -0.39506423473358154,
          0.28509828448295593
        ],
        [
          -0.14912332594394684,
          0.6910056471824646,
          0.4690628945827484,
          0.22493217885494232,
          0.20298588275909424,
          -0.3102734684944153,
          0.22604884207248688,
          0.60059654712677,
          0.2741438150405884,
          -0.1403498649597168,
          -0.10906461626291275,
          -0.1859559714794159,
          0.25755876302719116,
          -0.08283865451812744,
          0.16911062598228455,
          0.07676257193088531,
          -0.11827731132507324,
          -0.08442745357751846,
          -0.821208655834198,
          0.020981639623641968,
          0.37933146953582764,
          -0.060989126563072205,
          -0.02419796772301197,
          -0.24328941106796265,
          -0.09085796773433685,
          0.3379596769809723,
          -0.023922430351376534,
          0.29328200221061707,
          0.7120723724365234,
          0.2988850772380829,
          0.2437688410282135,
          -0.0486660860478878,
          0.44293108582496643,
          -0.4252468943595886,
          -0.7673354744911194,
          -0.0067072599194943905,
          -0.07335355132818222,
          -0.5120527744293213,
          -0.024271205067634583,
          -0.5085009932518005,
          -0.08341386169195175,
          0.3939817249774933,
          -0.13904842734336853,
          -0.1280377209186554,
          0.6822471618652344,
          0.45025670528411865,
          0.046594735234975815,
          -0.043007560074329376,
          0.31547245383262634,
          0.4231439232826233,
          0.44758909940719604,
          -0.13613253831863403,
          0.14979252219200134,
          -0.2511785328388214,
          0.039516329765319824,
          0.41848617792129517,
          0.036171965301036835,
          0.5776361227035522,
          -0.10762771964073181,
          0.39305174350738525,
          0.5285059213638306,
          0.05641139671206474,
          0.5788758993148804,
          -0.03179721534252167
        ],
        [
          0.258384644985199,
          0.5401307940483093,
          0.3334288001060486,
          0.04570433869957924,
          0.26896965503692627,
          -0.11081518977880478,
          0.21973291039466858,
          0.3138865828514099,
          0.23555660247802734,
          -0.04016651213169098,
          -0.13110454380512238,
          0.09179690480232239,
          0.07051552832126617,
          -0.14341819286346436,
          -0.1253301203250885,
          0.18774861097335815,
          -0.3223918676376343,
          -0.09271299839019775,
          0.08589320629835129,
          0.05341722443699837,
          -0.025518495589494705,
          -0.018999330699443817,
          0.1648385226726532,
          0.10276361554861069,
          0.04595465585589409,
          0.03160000964999199,
          0.024306122213602066,
          0.1280016005039215,
          0.17768390476703644,
          0.1830858290195465,
          0.2859630584716797,
          -0.10336644947528839,
          0.18485647439956665,
          0.23126360774040222,
          0.08455159515142441,
          0.06178180128335953,
          -0.3556797206401825,
          0.21622858941555023,
          -0.10335903614759445,
          0.16486507654190063,
          0.07273048907518387,
          -0.1957867294549942,
          0.2666623592376709,
          0.003391035133972764,
          0.41334035992622375,
          -0.01587560772895813,
          0.28604426980018616,
          0.23540376126766205,
          0.12749920785427094,
          0.30806881189346313,
          0.2360292375087738,
          0.007904388941824436,
          0.13864406943321228,
          -0.46940019726753235,
          0.22027315199375153,
          0.03548877313733101,
          0.253988116979599,
          0.1057732105255127,
          0.12714646756649017,
          0.17242251336574554,
          0.03200171887874603,
          -0.020434703677892685,
          0.18972381949424744,
          -0.05566813796758652
        ],
        [
          1.1505889892578125,
          -0.2812112867832184,
          1.8560596704483032,
          -0.06769593805074692,
          0.015685036778450012,
          -0.05578894540667534,
          0.1855577826499939,
          0.08343575149774551,
          -0.11051640659570694,
          0.07107532769441605,
          -0.169979989528656,
          0.2649962902069092,
          0.5180991291999817,
          0.034530121833086014,
          0.03735142573714256,
          -0.09751483798027039,
          -0.023815765976905823,
          0.20315110683441162,
          -0.584485650062561,
          0.19953294098377228,
          -0.0098232701420784,
          -0.3048870265483856,
          0.3111328184604645,
          -0.02463391236960888,
          0.33825087547302246,
          -0.07240621000528336,
          0.3781929612159729,
          0.2520682215690613,
          -0.12970983982086182,
          -0.25776705145835876,
          0.37307462096214294,
          0.035432301461696625,
          0.10644037276506424,
          -0.5278472900390625,
          -0.8382967710494995,
          0.015132840722799301,
          -0.16646215319633484,
          -0.45400136709213257,
          0.03740934282541275,
          0.5001187324523926,
          -0.1662382185459137,
          -0.06007792428135872,
          -0.7363784909248352,
          0.10245953500270844,
          -0.16479970514774323,
          -0.2583858072757721,
          0.3250625431537628,
          0.1502704918384552,
          -0.14834456145763397,
          0.3559572398662567,
          -0.10157977044582367,
          -0.180135577917099,
          0.21765582263469696,
          -0.2199457287788391,
          0.3297955393791199,
          -0.245461568236351,
          0.05155498534440994,
          -0.07056864351034164,
          0.12238684296607971,
          0.09046138823032379,
          0.07150633633136749,
          0.1844874769449234,
          -0.18041612207889557,
          0.13900959491729736
        ],
        [
          -1.546462893486023,
          -0.04465346783399582,
          -2.3104233741760254,
          0.01805344969034195,
          0.12667235732078552,
          0.2988574802875519,
          0.264359712600708,
          -0.0642843246459961,
          0.16535723209381104,
          0.2066274732351303,
          0.08475318551063538,
          -0.003287660889327526,
          -0.05964512377977371,
          -0.02156944014132023,
          0.03307410329580307,
          -0.07365825772285461,
          0.23697783052921295,
          0.10744795948266983,
          0.609065055847168,
          0.09982646256685257,
          0.10192655771970749,
          0.12465230375528336,
          -0.29832160472869873,
          0.2281935214996338,
          -0.14332272112369537,
          0.11958877742290497,
          -0.2885672450065613,
          -0.14793530106544495,
          0.029177501797676086,
          0.354534387588501,
          -0.17340031266212463,
          0.3694995641708374,
          0.127328559756279,
          0.41483592987060547,
          0.4486730992794037,
          0.07367246598005295,
          -0.04473980888724327,
          0.47616323828697205,
          0.037565525621175766,
          -0.4582221210002899,
          0.061790190637111664,
          0.15258574485778809,
          0.5154953002929688,
          0.2199527621269226,
          -0.22525683045387268,
          -0.04234280809760094,
          -0.20407535135746002,
          0.051893722265958786,
          0.030590688809752464,
          0.1794213056564331,
          -0.03643510118126869,
          0.10962995886802673,
          0.09685102850198746,
          0.19315683841705322,
          -0.15744882822036743,
          0.06310179829597473,
          0.2658713757991791,
          0.10728086531162262,
          -0.6074515581130981,
          -0.18379732966423035,
          0.0016543983947485685,
          0.218324214220047,
          -0.1462167650461197,
          0.3512163460254669
        ],
        [
          0.0717209056019783,
          0.031091872602701187,
          -0.05044940114021301,
          0.0943940281867981,
          0.0282119270414114,
          0.0954851284623146,
          0.07327567785978317,
          -0.08609463274478912,
          0.04950486868619919,
          0.03499898687005043,
          -0.08467789739370346,
          0.03257463127374649,
          -0.09303063154220581,
          -0.07447400689125061,
          -0.021999970078468323,
          -0.04151208698749542,
          -0.061344556510448456,
          -0.08260252326726913,
          0.04290437325835228,
          0.09700663387775421,
          -0.05541328340768814,
          -0.10743093490600586,
          0.0053819022141397,
          -0.12869220972061157,
          -0.08141985535621643,
          -0.06667320430278778,
          0.09441384673118591,
          -0.08963729441165924,
          -0.002412845380604267,
          -0.09107507765293121,
          -0.12328778207302094,
          -0.0515219010412693,
          -0.03510348126292229,
          -0.04906230419874191,
          0.07565101981163025,
          0.0419464111328125,
          0.06849594414234161,
          0.05709710717201233,
          -0.006632313132286072,
          0.035281382501125336,
          -0.10613978654146194,
          0.036092359572649,
          0.030284637585282326,
          -0.06493178755044937,
          0.01782437600195408,
          -0.0715889185667038,
          -0.10935897380113602,
          0.011303285136818886,
          0.011171167716383934,
          -0.051595140248537064,
          0.016729919239878654,
          -0.11764777451753616,
          -0.09645716100931168,
          0.09799380600452423,
          -0.12695977091789246,
          0.001378806889988482,
          0.067532479763031,
          0.07157465815544128,
          0.022410865873098373,
          -0.10061157494783401,
          -0.011885558255016804,
          -0.07252252101898193,
          -0.0210599135607481,
          0.06778229773044586
        ],
        [
          0.977489173412323,
          -0.13004891574382782,
          1.3885830640792847,
          0.1078767478466034,
          -0.07921073585748672,
          0.0757722407579422,
          0.09383759647607803,
          0.01917635090649128,
          -0.21198152005672455,
          0.03526223078370094,
          -0.05714128166437149,
          0.2439713180065155,
          0.22943341732025146,
          0.14168734848499298,
          0.03253054991364479,
          -0.06430961191654205,
          -0.008008270524442196,
          0.1570451408624649,
          -0.32651934027671814,
          0.12490908801555634,
          -0.3607083857059479,
          -0.14856278896331787,
          0.4840752184391022,
          0.1184149831533432,
          0.32041725516319275,
          -0.16105681657791138,
          0.3968260884284973,
          0.1809498369693756,
          -0.08662378787994385,
          -0.0013250175397843122,
          0.17100673913955688,
          0.051737986505031586,
          -0.1282627433538437,
          -0.5034751296043396,
          -0.7564943432807922,
          0.15068784356117249,
          -0.14016270637512207,
          -0.45621785521507263,
          0.18282978236675262,
          0.49773097038269043,
          -0.18992403149604797,
          -0.2691824436187744,
          -0.1273615062236786,
          0.2598955035209656,
          0.049691930413246155,
          -0.06742728501558304,
          0.2565016746520996,
          0.3058987557888031,
          0.02224920690059662,
          -0.005671511869877577,
          -0.0812477245926857,
          -0.22506709396839142,
          0.16210465133190155,
          0.060598939657211304,
          0.23061493039131165,
          -0.373124361038208,
          -0.3255421817302704,
          -0.18670158088207245,
          0.04955960065126419,
          -0.03335680440068245,
          -0.16039414703845978,
          0.11450210213661194,
          -0.12843045592308044,
          -0.027180340141057968
        ],
        [
          -0.09445369243621826,
          0.21117562055587769,
          0.02696712501347065,
